40 100
<UNK> 0.0 0.0 0.0 0.0 0.0 0.0 0.0 0.0 0.0 0.0 0.0 0.0 0.0 0.0 0.0 0.0 0.0 0.0 0.0 0.0 0.0 0.0 0.0 0.0 0.0 0.0 0.0 0.0 0.0 0.0 0.0 0.0 0.0 0.0 0.0 0.0 0.0 0.0 0.0 0.0 0.0 0.0 0.0 0.0 0.0 0.0 0.0 0.0 0.0 0.0 0.0 0.0 0.0 0.0 0.0 0.0 0.0 0.0 0.0 0.0 0.0 0.0 0.0 0.0 0.0 0.0 0.0 0.0 0.0 0.0 0.0 0.0 0.0 0.0 0.0 0.0 0.0 0.0 0.0 0.0 0.0 0.0 0.0 0.0 0.0 0.0 0.0 0.0 0.0 0.0 0.0 0.0 0.0 0.0 0.0 0.0 0.0 0.0 0.0 0.0
1 0.880535 0.987646 0.361415 0.863719 0.376191 0.589816 0.851318 0.649392 0.512979 0.779387 0.641483 0.802345 0.856523 0.54371 0.529127 0.346369 0.591773 0.866087 0.568292 0.925753 0.634608 0.469001 0.599563 0.929726 0.506999 0.723563 0.573153 0.498676 0.391668 0.285368 0.766634 0.267992 0.562949 0.331678 0.642133 0.257394 0.992852 0.528278 1.127149 0.319995 0.026102 0.466137 0.245288 0.783231 0.458281 0.730659 0.171246 0.516935 0.682803 0.75833 0.70053 0.663795 0.33105 0.428443 0.793966 0.753511 0.520499 1.10394 0.17844 0.504365 0.086912 0.594443 0.75912 0.245997 0.652713 0.633178 0.050984 0.366583 0.535656 0.830486 0.501413 0.271697 0.731237 0.36201 0.810922 0.852271 0.288563 0.493832 0.079315 0.825917 0.97998 0.75764 0.693959 0.065789 0.621096 0.914993 0.78169 0.570049 0.522202 1.000244 0.425086 0.088696 0.868117 0.507086 0.730236 0.471359 1.160479 0.734057 0.799136 0.114932
5 1.494191 1.541341 0.754091 1.372377 0.704482 1.045765 1.204507 1.244178 0.908479 1.273479 1.140209 1.396534 1.391299 1.255178 0.987843 0.890773 1.161158 1.449378 1.033176 1.451121 1.142241 1.116621 1.13461 1.28066 1.124764 1.101978 1.22427 0.924047 0.916367 0.856147 1.316075 0.829121 1.077172 0.856289 1.011094 0.875353 1.464286 0.984612 1.468724 0.919177 0.669554 0.955017 0.742208 1.322115 0.976233 1.29555 0.619317 1.071739 1.311874 1.107587 1.261091 1.164463 0.8073 1.070483 1.477508 1.320875 1.129738 1.555731 0.764474 1.16392 0.731788 1.14728 1.074068 0.89269 1.077745 0.954142 0.733245 0.749105 1.023759 1.210585 1.094181 0.777085 1.25761 0.816515 1.357697 1.460041 0.812129 0.924964 0.582972 1.327869 1.480111 1.273492 1.014375 0.577957 1.243511 1.231821 1.319417 0.958273 1.122139 1.759906 0.991093 0.623952 1.380346 0.901299 1.312726 0.931942 1.700715 1.092406 1.250073 0.48436
2 0.684755 0.756058 0.094523 0.634761 0.185398 0.503798 0.48723 0.559964 0.379715 0.554345 0.449755 0.572117 0.771805 0.331677 0.235993 0.335009 0.267216 0.617984 0.354834 0.647405 0.437696 0.415095 0.468818 0.659363 0.426797 0.461932 0.369825 0.293969 0.204371 0.13292 0.61768 0.059107 0.435043 0.146045 0.439692 0.119417 0.829295 0.289412 0.761377 0.168733 -0.115824 0.271827 0.049936 0.567095 0.287993 0.520669 -0.093184 0.29801 0.42417 0.403984 0.575746 0.438331 0.081545 0.267191 0.578922 0.680286 0.301971 0.827606 0.044582 0.367536 0.066633 0.492172 0.518253 0.208314 0.395218 0.352152 -0.083431 0.086281 0.306464 0.63858 0.332797 0.129582 0.561228 0.204915 0.57091 0.713428 0.050147 0.322094 -0.191264 0.6106 0.712617 0.555515 0.448879 -0.068895 0.411451 0.517152 0.647408 0.352781 0.344001 0.767498 0.145553 0.070846 0.624335 0.274997 0.474543 0.234099 0.91364 0.501979 0.593536 -0.043439
i 0.054567 -0.055683 -0.09585 0.026905 -0.034706 -0.034738 0.119788 -0.155543 -0.000711 -0.051564 0.070658 0.1263 -0.039778 0.048573 0.048064 0.008803 -0.073528 0.012491 -0.014655 -0.069515 0.105969 0.076976 0.188571 -0.108951 0.014583 -0.033158 -0.05492 -0.082026 0.05042 0.136782 -0.024785 -0.136159 0.145047 -0.100248 0.013485 -0.085071 -0.028291 0.161465 0.148388 -0.177321 0.091814 0.019454 0.104812 0.098746 -0.027541 0.038104 0.133774 0.020246 -0.18885 -0.135043 0.052814 -0.124348 -0.043478 -0.060311 -0.024003 0.098936 -0.236391 0.073875 0.038133 0.233375 -0.037872 0.031495 0.074558 -0.32593 0.11162 0.016024 -0.173754 -0.028804 0.233969 0.187696 -0.032325 -0.031051 -0.153521 -0.021476 0.018184 0.004411 -0.064834 0.184908 0.013126 -0.004896 0.137039 0.015625 0.103454 0.052727 -0.03447 0.04753 -0.089927 -0.0733 0.025519 -0.001163 -0.004054 -0.093713 0.05431 -0.143002 -0.068207 -0.081462 0.061827 0.078307 -0.062465 -0.063723
a 0.045784 -0.055504 -0.101196 0.017014 -0.025525 -0.02891 0.115025 -0.164871 0.003509 -0.049591 0.077398 0.115697 -0.031978 0.040662 0.030819 0.010546 -0.099783 0.032491 -0.018226 -0.037825 0.138531 0.054415 0.184171 -0.09306 0.018903 -0.017111 -0.038518 -0.08384 0.030096 0.141715 -0.005803 -0.125678 0.150359 -0.069569 0.013844 -0.055193 -0.002911 0.137141 0.132362 -0.172445 0.045943 -0.000977 0.101019 0.100763 -0.059248 0.041284 0.10197 0.03449 -0.158633 -0.113865 0.036374 -0.142305 -0.04126 -0.083333 -0.023136 0.115629 -0.229369 0.038817 0.052743 0.198351 -0.028258 0.035845 0.067634 -0.31088 0.090905 -0.009749 -0.198354 -0.052075 0.222626 0.196391 -0.03235 -0.03903 -0.136116 -0.01473 0.020298 -0.02898 -0.084206 0.187996 0.010542 -0.013685 0.134846 -0.010064 0.097711 0.014943 -0.02263 0.062018 -0.09746 -0.06257 0.010059 0.035167 -0.004578 -0.096444 0.049093 -0.147782 -0.05749 -0.108777 0.061776 0.084935 -0.060201 -0.070324
n 0.029985 -0.039542 -0.105741 0.018795 -0.01882 -0.056592 0.117783 -0.163722 0.010169 -0.047469 0.071298 0.138103 -0.044916 0.057202 0.055999 -0.00301 -0.078259 0.04007 0.006228 -0.086835 0.088578 0.090948 0.192142 -0.113641 -0.002358 -0.038287 -0.080369 -0.087339 0.064377 0.141016 -0.015293 -0.115405 0.161755 -0.096879 0.015645 -0.088062 -0.040276 0.140021 0.144071 -0.183044 0.069981 0.016246 0.093815 0.082275 -0.020651 0.011886 0.120592 0.024842 -0.168482 -0.135712 0.072443 -0.137644 -0.041573 -0.082782 -0.007725 0.09052 -0.244971 0.056568 0.038184 0.236817 -0.046467 0.034781 0.065216 -0.316273 0.100405 0.026525 -0.145986 0.003054 0.230305 0.169697 -0.041246 -0.036694 -0.144892 -0.022951 0.028529 -0.005771 -0.070685 0.179404 0.014005 -0.008988 0.130503 -0.011632 0.104838 0.049732 -0.05635 0.066032 -0.082499 -0.081968 0.005346 -0.006932 0.009545 -0.116821 0.040804 -0.111373 -0.089015 -0.083605 0.07175 0.075297 -0.060196 -0.05111
d 0.103615 -0.074028 -0.065299 0.017779 0.027091 -0.078993 0.129636 -0.112702 0.000127 -0.080395 0.086703 0.111518 -0.105547 0.058659 0.097491 0.09293 -0.095931 0.033292 0.041765 -0.052004 0.131368 0.042756 0.143924 -0.004215 -0.05794 -0.04406 -0.034653 -0.043721 -0.032444 0.155549 -0.043123 -0.033407 0.12721 -0.103417 0.033174 -0.11245 -0.022973 0.121412 0.12982 -0.119461 0.034624 0.003797 0.094397 0.067298 -0.064937 0.017028 0.070281 0.008049 -0.201544 -0.104583 0.093745 -0.121938 -0.051347 -0.08434 -0.008544 0.058723 -0.232805 0.060104 0.044999 0.144527 -0.033023 0.039168 0.053661 -0.306594 0.129063 -0.020795 -0.132172 -0.027871 0.193105 0.189806 -0.025252 -0.074499 -0.127741 -0.077672 0.02087 -0.076429 -0.134816 0.137687 -0.011483 -0.061374 0.231201 0.001975 0.125583 0.012202 -0.052455 0.009851 -0.100045 -0.045107 -0.046884 0.019831 -0.027102 -0.106822 -0.028943 -0.146712 -0.13737 -0.079565 0.094624 0.108703 -0.114057 -0.101334
t 0.031129 -0.039411 -0.10896 0.006145 -0.003403 -0.014554 0.115159 -0.155632 0.009145 -0.051496 0.050516 0.141957 -0.039074 0.029357 0.046637 0.01146 -0.105174 0.041246 0.003844 -0.071196 0.123863 0.049489 0.175493 -0.107674 0.010159 -0.024757 -0.035014 -0.067093 0.028808 0.141999 -0.020745 -0.156577 0.149097 -0.087348 0.027804 -0.074874 -0.01257 0.137019 0.157499 -0.169363 0.049258 0.024817 0.120057 0.080891 -0.045956 0.043301 0.135568 0.045539 -0.167264 -0.102667 0.045584 -0.105992 -0.052545 -0.07579 -0.023731 0.095629 -0.233804 0.044435 0.049509 0.206283 -0.011987 0.042223 0.058564 -0.312083 0.079843 0.026499 -0.185355 -0.04573 0.226408 0.192605 -0.029152 -0.038822 -0.135595 -0.027927 0.023311 -0.022035 -0.08119 0.167005 0.017187 -0.016513 0.119126 -0.017028 0.096677 0.01934 -0.019428 0.064439 -0.081647 -0.061105 0.026997 0.004434 0.014591 -0.119405 0.067553 -0.12273 -0.084447 -0.092667 0.057426 0.062275 -0.067237 -0.049887
o 0.055284 -0.020552 -0.112448 -0.010968 -0.022385 -0.026785 0.114865 -0.164859 -0.003944 -0.054164 0.068203 0.139162 -0.045079 0.042638 0.032052 0.026614 -0.093685 0.064929 -0.004761 -0.05708 0.166085 0.050815 0.193696 -0.124742 0.025877 -0.015491 -0.04247 -0.039502 0.024763 0.1507 -0.030974 -0.157091 0.13617 -0.108837 0.012496 -0.047199 -0.011538 0.108996 0.16257 -0.183131 0.02075 0.016112 0.106174 0.120877 -0.040614 0.041 0.126281 0.030905 -0.18051 -0.102965 0.026301 -0.117646 -0.05407 -0.076757 -0.013839 0.125419 -0.265153 0.016827 0.069578 0.196112 -0.035524 0.033832 0.061861 -0.282133 0.112254 -0.001383 -0.179748 -0.039345 0.232336 0.205533 -0.034033 -0.036806 -0.142413 0.004058 0.031752 -0.02457 -0.066569 0.170623 0.010575 0.010472 0.136375 -0.034664 0.101639 0.006946 -0.030377 0.070537 -0.086022 -0.061937 0.007484 0.048313 0.001615 -0.099871 0.035242 -0.124511 -0.048438 -0.121854 0.054917 0.06334 -0.044734 -0.074127
h 0.02908 0.043898 -0.125219 -0.019296 -0.001861 -0.055763 0.108874 -0.1692 0.077991 -0.017593 0.038235 0.086781 0.010426 0.042031 0.102189 -0.005868 -0.153473 0.064528 -0.00999 -0.036291 0.135826 0.019832 0.15921 -0.059498 0.029782 0.014165 0.015599 -0.017044 0.084319 0.123846 -0.024068 -0.069719 0.130084 -0.059361 0.089571 -0.100121 -4.2e-05 0.125007 0.153948 -0.22496 0.000918 0.013111 0.076512 0.120723 -0.045821 -0.028902 0.092686 0.09031 -0.165155 -0.070599 0.07044 -0.124642 -0.031892 -0.167139 -0.056766 0.036253 -0.22341 -0.018694 0.116698 0.20433 -0.102977 0.011 0.053622 -0.248222 0.05751 0.018627 -0.16848 0.065969 0.163573 0.208954 -0.017369 -0.029825 -0.16616 -0.033982 -0.002902 -0.026611 -0.040129 0.23597 0.002826 0.020583 0.128248 -0.051327 0.087391 -3.4e-05 -0.004698 0.09948 -0.07062 -0.136551 0.047958 0.003686 0.055742 -0.132265 0.019949 -0.125813 -0.102464 -0.105245 0.064162 0.023791 -0.072802 -0.034747
e 0.068861 -0.023654 -0.084215 0.006 -0.001106 -0.056805 0.1104 -0.151952 0.007923 -0.056013 0.080323 0.10111 -0.090347 0.05398 0.061562 0.023407 -0.084241 0.035303 0.023837 -0.057254 0.133287 0.03931 0.182083 -0.075768 -0.010172 -0.036741 -0.053999 -0.043489 0.034847 0.155856 -0.039029 -0.111774 0.163459 -0.101744 0.02716 -0.084868 -0.018303 0.12649 0.117627 -0.152792 0.052527 -0.006556 0.10074 0.065091 -0.04833 0.062287 0.118699 0.045151 -0.165886 -0.131924 0.064115 -0.123186 -0.019192 -0.075173 -0.017472 0.065274 -0.2291 0.04554 0.036817 0.181462 -0.029014 0.030736 0.055841 -0.322037 0.111732 0.025885 -0.17689 -0.024956 0.221522 0.166983 -0.051919 -0.045374 -0.138258 -0.055192 0.002787 -0.023125 -0.104976 0.159861 0.028498 -0.054028 0.142963 -0.03795 0.123134 0.031447 -0.039504 0.040773 -0.104193 -0.053761 0.008659 0.015264 0.001427 -0.113247 0.047408 -0.11598 -0.08382 -0.086205 0.046532 0.072614 -0.093578 -0.060903
m 0.085306 -0.019413 -0.110805 0.066368 -0.046678 0.000432 0.105519 -0.152202 -0.021569 -0.015093 0.076682 0.154764 -0.008663 0.053877 0.019373 0.022678 -0.128242 0.066949 0.003939 -0.020285 0.157613 0.060463 0.177558 -0.11494 0.064627 -0.005282 -0.017003 -0.028676 -0.024301 0.154476 0.006188 -0.145383 0.152444 -0.077216 -0.031146 -0.039809 0.027482 0.131735 0.128641 -0.158382 0.043544 -0.027302 0.121172 0.14607 -0.048758 0.032359 0.117155 0.009169 -0.121448 -0.090997 0.006835 -0.080398 -0.067669 -0.068504 -0.000191 0.111742 -0.221061 0.065028 0.048646 0.186777 -0.006579 0.061395 0.096155 -0.304971 0.100713 -0.019082 -0.183106 -0.103901 0.22162 0.159684 -0.089452 -0.023917 -0.089168 0.000595 0.030393 0.033732 -0.088363 0.166312 -0.025314 0.045877 0.151495 0.022027 0.064227 0.009883 0.029576 0.055482 -0.065691 -0.049654 0.044973 0.107907 -0.00095 -0.0886 0.039746 -0.116855 -0.008731 -0.121963 0.060291 0.068541 -5.7e-05 -0.132802
y 0.030872 -0.009192 -0.087865 -0.006524 -0.00684 0.021487 0.045829 -0.190228 -0.017392 -0.058112 0.097077 0.118365 0.050243 0.025524 0.020515 -0.021475 -0.118054 0.042001 -0.082684 -0.075882 0.138273 0.051237 0.096495 -0.057872 0.064513 0.016809 0.039168 -0.044539 0.081616 0.122129 0.034481 -0.068938 0.14216 -0.088523 0.066343 -0.052924 -0.001769 0.094861 0.152183 -0.172946 0.027062 0.062239 0.078551 0.073922 -0.068468 0.020809 0.10504 0.090229 -0.044616 -0.087892 0.00815 -0.124384 -0.069909 -0.117652 0.026277 0.077824 -0.240099 0.005291 0.082539 0.174636 -0.026936 -0.032501 0.093956 -0.293008 0.026202 0.012142 -0.149746 0.006426 0.149852 0.149262 -0.011583 -0.070031 -0.117969 0.067488 -0.017686 -0.057902 -0.115627 0.241853 0.01182 0.040219 0.047104 -0.048024 0.111601 0.001939 0.050364 0.013028 -0.172533 -0.096238 -0.006936 0.074922 0.053776 -0.095161 0.032614 -0.14414 -0.026636 -0.063287 0.043768 -0.005384 -0.035656 -0.046677
f 0.059686 0.021866 -0.115814 -0.037744 -0.036702 -0.042499 0.123484 -0.115499 0.015355 -0.042459 0.075738 0.057158 -0.043748 0.059731 0.07219 0.005223 -0.090557 0.067482 0.032058 -0.077087 0.147558 0.001818 0.15894 -0.072676 0.043021 -0.082214 -0.105907 -0.077065 0.085769 0.177314 -0.038282 -0.114678 0.108943 -0.140072 0.079503 -0.125537 0.028759 0.120301 0.100396 -0.181136 0.060711 -0.031786 0.029672 0.051511 -0.038712 0.012499 0.164132 0.044179 -0.16227 -0.102426 0.017223 -0.177642 -0.043351 -0.043919 0.047554 0.023404 -0.254761 -0.007206 -0.010158 0.177542 -0.029392 0.012849 0.094119 -0.313958 0.083366 0.046628 -0.12858 -0.016882 0.213718 0.177043 -0.009869 -0.113631 -0.174798 -0.060572 -0.014814 -0.06679 -0.080333 0.166092 0.085777 -0.024544 0.116225 -0.086342 0.07094 0.030072 0.056619 0.000367 -0.085126 -0.075614 -0.01355 0.014108 0.090991 -0.100237 0.052656 -0.131416 -0.094933 -0.042106 0.025776 0.026861 -0.103356 -0.028866
r 0.042375 -0.03404 -0.10502 0.01564 -0.021635 -0.02972 0.134297 -0.146393 0.010258 -0.055393 0.073746 0.091133 -0.04472 0.056017 0.051028 0.045845 -0.09732 0.053285 0.010633 -0.042226 0.146838 0.055118 0.200455 -0.076823 0.01891 -0.007228 -0.037275 -0.054477 0.019973 0.129226 -0.016628 -0.152032 0.147202 -0.115237 0.040217 -0.085462 0.001169 0.136678 0.156474 -0.172473 0.032603 -0.017127 0.090982 0.114528 -0.018386 0.052706 0.115859 0.028921 -0.170207 -0.148573 0.033165 -0.104704 -0.026155 -0.112911 -0.036692 0.093878 -0.261269 0.058228 0.057459 0.203837 -0.02269 0.025352 0.070426 -0.300835 0.094811 -0.006855 -0.20172 -0.039238 0.220836 0.195145 -0.036486 -0.049597 -0.148565 -0.04335 0.010204 0.001416 -0.08486 0.176648 0.01584 -0.002835 0.169342 -0.022721 0.134669 0.023172 -0.037502 0.04882 -0.10858 -0.058137 -0.006938 0.020081 -0.016279 -0.10027 0.052792 -0.13641 -0.059858 -0.116971 0.047044 0.080916 -0.081375 -0.063988
s 0.072101 -0.020515 -0.086623 0.02023 0.012567 -0.03807 0.179741 -0.181841 0.026465 -0.050484 -0.016363 0.1709 -0.083618 0.047783 0.058259 0.019917 -0.09138 0.037358 0.056129 -0.050429 0.118076 0.070846 0.212596 -0.109414 0.021854 -0.01744 -0.020897 -0.053423 0.066084 0.165184 0.008737 -0.125831 0.160578 -0.040842 0.02693 -0.068947 -0.035826 0.136503 0.160459 -0.225898 0.048118 0.007625 0.119065 0.122239 -0.033178 0.026476 0.15751 0.031954 -0.204805 -0.072836 0.062401 -0.132354 0.008433 -0.106136 -0.046321 0.068512 -0.267158 0.02571 0.087674 0.234295 -0.029858 0.014226 0.078185 -0.329128 0.095307 0.069251 -0.169398 0.001848 0.171064 0.17448 -0.041029 -0.010418 -0.149256 -0.024112 0.019466 0.001766 -0.052424 0.155901 0.047547 -0.035171 0.108776 -0.014049 0.094076 0.041748 -0.042759 0.038297 -0.094679 -0.068594 0.05818 -0.04108 0.068207 -0.119168 0.048056 -0.105703 -0.09715 -0.079758 0.051186 0.02268 -0.062968 -0.084575
v 0.064945 -0.059799 -0.077737 0.002063 -0.038924 -0.018958 0.081724 -0.114188 -0.041969 -0.074547 0.152083 0.052334 -0.02674 0.065645 0.019837 -0.015407 -0.080714 -0.014528 -0.020745 -0.058975 0.146972 0.026364 0.174935 -0.056526 1.8e-05 -0.013639 -0.093841 -0.072467 -0.031194 0.113311 -0.029316 -0.166183 0.143176 -0.189789 -0.021131 -0.024478 -0.033724 0.158564 0.118961 -0.142687 0.033539 -0.011903 0.086363 0.08607 -0.022478 0.110411 0.132444 0.018785 -0.179863 -0.146462 0.029014 -0.157792 0.020162 -0.073273 -0.02091 0.135682 -0.22266 0.063731 0.007163 0.22056 -0.007139 0.003392 0.054012 -0.322085 0.13516 0.012429 -0.219254 -0.053473 0.266644 0.166416 -0.027791 -0.076071 -0.142152 -0.054909 -0.006804 -0.031786 -0.110197 0.193308 -0.018482 -0.038351 0.149146 -0.035755 0.108149 0.044312 -0.040385 0.034185 -0.113742 -0.053984 -0.008777 0.047431 -0.033143 -0.120078 0.055609 -0.139499 -0.102311 -0.092438 0.071734 0.104818 -0.052752 -0.07031
w 0.098363 0.09549 -0.148536 -0.177973 0.039006 -0.119087 0.036176 -0.181098 0.147739 0.044005 0.064541 0.05792 -0.08098 0.136085 0.180434 -0.06736 -0.185825 0.110633 0.023989 -0.055799 0.075254 0.031926 0.128028 -0.069008 -0.040873 -0.037026 0.003174 -0.007529 0.100652 0.069616 -0.078943 0.0426 0.162703 -0.049655 0.058056 -0.06453 -0.046749 0.112684 0.131616 -0.165682 -0.062059 0.057213 0.037741 0.147292 -0.066335 -0.008322 -0.023137 0.106658 -0.13844 -0.080706 0.144185 -0.202672 -0.037884 -0.205341 0.039416 -0.085604 -0.136492 -0.109366 0.132262 0.150849 -0.152887 0.076218 0.066339 -0.145354 0.106657 0.059042 -0.033772 0.225679 0.176451 0.163801 -0.078717 -0.069111 -0.06261 -0.109229 0.026984 0.038625 -0.051969 0.117011 0.139041 -0.076078 0.205029 -0.024963 0.202113 -0.065344 -0.011115 0.149155 -0.07214 -0.227879 -0.047074 -0.056036 0.104403 -0.157289 -0.011515 -0.031425 -0.154076 -0.123143 0.117586 0.034669 -0.112515 0.108962
b 0.070203 0.041339 -0.112337 0.048117 -0.041667 -0.04855 0.15349 -0.192137 0.00943 -0.071397 0.046136 0.116652 -0.020714 0.008349 0.036484 0.014522 -0.131267 0.036485 0.009492 -0.028354 0.136239 0.015396 0.145353 -0.074743 0.030946 -0.038592 -0.061562 -0.07922 0.047769 0.102524 -0.002785 -0.125655 0.158491 -0.03893 0.0246 -0.091044 0.008609 0.146847 0.153825 -0.187635 0.003736 0.006201 0.102266 0.157961 -0.058449 0.009047 0.060996 0.077034 -0.16863 -0.110691 0.054724 -0.132053 -0.034294 -0.08666 -0.001594 0.082553 -0.222358 0.005807 0.05208 0.156811 -0.03437 0.015277 0.028889 -0.297998 0.055896 0.003628 -0.18966 -0.055277 0.167521 0.202738 0.012474 -0.024866 -0.190338 -0.043992 0.050811 -0.045899 -0.089261 0.177575 0.019603 -0.031211 0.084099 -0.032484 0.11303 -0.017057 -0.042496 0.103024 -0.113798 -0.157292 0.077082 0.005598 0.019904 -0.123426 0.050584 -0.163047 -0.084627 -0.124508 0.097096 0.072036 -0.089136 -0.139775
u 0.010459 -0.035824 -0.095753 0.003296 -0.020578 -0.036996 0.158819 -0.162872 0.003509 -0.048797 0.053368 0.132215 -0.071289 0.018757 0.077285 0.024592 -0.121797 0.032191 -0.000435 -0.068799 0.096096 0.05969 0.177339 -0.080197 0.004745 -0.018385 -0.05218 -0.077808 0.040944 0.123002 -0.029329 -0.111947 0.142115 -0.098525 0.041511 -0.111216 -0.024783 0.130773 0.13719 -0.180043 0.076895 0.000697 0.090336 0.083344 -0.076767 0.016747 0.132213 0.068499 -0.15509 -0.127455 0.067113 -0.155747 -0.042678 -0.115987 -0.031079 0.081066 -0.251921 0.025983 0.060442 0.212286 -0.016661 0.039877 0.056468 -0.308035 0.039458 0.017286 -0.189175 -0.026908 0.239448 0.204959 -0.012378 -0.068331 -0.163939 -0.055889 0.007253 -0.022437 -0.070629 0.160326 0.04192 -0.060188 0.152369 -0.023317 0.117873 0.008087 -0.040215 0.055368 -0.131965 -0.062548 0.023179 -0.006494 0.01905 -0.144099 0.021328 -0.141973 -0.092894 -0.080114 0.05036 0.068377 -0.106383 -0.057118
k 0.08803 0.091293 -0.092 -0.107533 0.005986 -0.10728 0.080206 -0.15716 0.075646 -0.047997 -0.03743 0.137305 -0.109119 0.13798 0.1861 -0.020046 -0.235107 0.150377 0.011688 0.021874 0.086052 0.043251 0.154991 -0.18374 -0.045598 -0.04109 -0.020584 -0.043352 0.066844 0.190951 -0.070215 -0.01648 0.113183 0.017537 0.100323 -0.063148 0.026302 0.152341 0.09687 -0.23893 -0.126251 0.007744 0.155036 0.219252 -0.083005 0.019935 0.006989 -0.064352 -0.084167 -0.108202 0.119143 -0.17389 0.064187 -0.28694 -0.068496 -0.023901 -0.128977 -0.156059 0.095519 0.115933 -0.103503 0.063475 0.03086 -0.184139 0.07958 -0.003662 -0.052206 0.039806 0.20955 0.21391 -0.075694 -0.113556 -0.046816 -0.023598 0.02923 -0.090502 -0.042717 0.144962 -0.062378 -0.076953 0.286677 -0.110598 0.125143 -0.075202 -0.042908 0.161784 -0.017612 -0.226415 0.1172 -0.060494 0.112232 -0.193278 -0.070833 -0.056599 -0.141405 -0.149155 0.142254 0.068619 -0.158507 -0.043466
g 0.079515 0.006181 -0.145057 0.000709 -0.04399 -0.148771 0.106392 -0.158307 0.016984 0.027819 0.057346 0.131938 -0.032222 0.096715 0.140994 -0.011117 -0.115916 0.021797 0.018194 -0.027279 -0.034123 0.123893 0.182085 -0.067741 -0.009629 -0.061118 -0.103706 -0.082056 0.094457 0.087893 -0.015937 -0.042885 0.127116 -0.069115 0.031722 -0.112242 -0.013946 0.151103 0.145312 -0.190526 0.028732 0.020039 0.06965 0.09056 -0.012615 -0.049287 0.107548 0.022848 -0.14559 -0.10484 0.158179 -0.145853 -0.063941 -0.185112 0.005093 0.004432 -0.114711 0.050045 0.018888 0.204734 -0.135137 0.084432 0.063855 -0.307191 0.073692 0.02194 -0.11266 0.055628 0.228958 0.166371 -0.064855 -0.070297 -0.111525 -0.037468 0.057972 0.023691 -0.092505 0.206302 -0.047867 0.039689 0.176258 0.023368 0.108343 0.015865 -0.036707 0.10558 -0.088956 -0.154034 0.023538 -0.014758 0.063716 -0.135152 0.030048 -0.111173 -0.095225 -0.063162 0.112112 0.055806 -0.072342 -0.022655
p 0.074443 -0.046946 -0.067337 0.008556 -0.003652 -0.03475 0.141165 -0.141932 -0.017084 -0.018861 0.07011 0.134823 -0.06584 0.054902 0.033361 0.065171 -0.111139 0.075994 0.01754 -0.014788 0.153454 0.061126 0.180698 -0.089827 -0.00204 -0.028803 -0.032718 -0.074686 0.001414 0.162568 -0.031277 -0.170022 0.136875 -0.074826 -0.003176 -0.074621 -0.011853 0.09911 0.151921 -0.163206 0.015145 -0.012509 0.112723 0.13625 -0.040197 0.070581 0.099181 -0.017671 -0.173011 -0.12786 0.041849 -0.115864 -0.053319 -0.082266 -0.020617 0.115251 -0.2576 0.040898 0.065044 0.177449 -0.027758 0.081124 0.081858 -0.309084 0.125382 0.00854 -0.154107 -0.07524 0.244647 0.22001 -0.034159 -0.060793 -0.128108 -0.034294 0.021104 -0.010303 -0.08167 0.145292 0.001567 -0.025367 0.186696 -0.006764 0.116085 -0.012514 -0.035027 0.060202 -0.056067 -0.051789 -0.002906 0.057813 -0.014609 -0.078887 0.07206 -0.141758 -0.046433 -0.133138 0.043131 0.084999 -0.046147 -0.082151
c 0.034578 -0.028656 -0.107082 -0.005308 -0.025628 -0.027387 0.152009 -0.145759 -0.025702 -0.063407 0.061975 0.115317 -0.059841 0.047361 0.046804 0.050073 -0.111414 0.063321 0.00615 -0.03813 0.159487 0.059081 0.200464 -0.11644 0.009812 -0.030819 -0.043756 -0.066605 -0.005916 0.143815 -0.049482 -0.189008 0.141579 -0.100455 0.001351 -0.06826 0.002056 0.149889 0.164744 -0.18923 0.048899 -0.012973 0.111392 0.112607 -0.038157 0.071677 0.118024 0.018689 -0.195929 -0.144143 0.024303 -0.126268 -0.029537 -0.074583 -0.043991 0.1209 -0.268254 0.033546 0.03059 0.240195 -0.036415 0.037716 0.075998 -0.323943 0.107866 0.019835 -0.204024 -0.092174 0.261854 0.216472 -0.039695 -0.05389 -0.151368 -0.022808 0.010817 -0.010895 -0.070383 0.163694 0.016826 -0.01416 0.184178 -0.033946 0.127048 0.013844 -0.060409 0.05419 -0.086509 -0.071246 0.019803 0.012821 -0.025365 -0.122284 0.061991 -0.138406 -0.085731 -0.10616 0.049521 0.098818 -0.090263 -0.079421
l 0.042537 0.025176 -0.101172 0.012912 -0.04391 -0.051306 0.109969 -0.182751 0.010521 -0.058889 0.106747 0.129808 -0.017078 0.038913 0.064814 0.021673 -0.100154 0.014293 -0.017101 -0.040526 0.103987 0.024619 0.145365 -0.086493 0.037053 -0.027706 -0.036365 -0.051636 0.026272 0.098705 0.002603 -0.075086 0.155062 -0.098242 0.011654 -0.061801 0.003315 0.117923 0.137849 -0.163777 0.033347 0.006406 0.05588 0.119641 -0.062964 0.0353 0.106392 0.077045 -0.144484 -0.122374 0.058413 -0.150607 -0.041943 -0.115875 0.007422 0.091663 -0.232369 0.040941 0.051351 0.168899 -0.0255 0.033959 0.038853 -0.329007 0.037321 0.019221 -0.169779 -0.048794 0.218776 0.184127 -0.013255 -0.054539 -0.144588 0.00401 0.032934 -0.055971 -0.074132 0.162328 0.020476 -0.015084 0.120761 -0.013656 0.09704 0.016918 -0.008904 0.061654 -0.148077 -0.116092 0.046434 0.037006 0.030108 -0.101275 0.034689 -0.15948 -0.062499 -0.102143 0.084828 0.073786 -0.073274 -0.076952
j -0.055686 0.095856 -0.206269 0.039628 -0.067194 -0.06875 0.084151 -0.267583 0.100785 -0.04381 -0.04146 0.098239 0.101578 0.022332 0.089307 0.00604 -0.187826 0.010369 0.195642 -0.020284 0.142862 0.14394 0.205481 -0.132121 0.047253 0.059035 -0.056752 -0.059637 0.139553 0.042404 -0.02728 -0.142435 0.197355 -0.067677 0.083602 -0.026487 0.22248 0.137211 0.196901 -0.270426 0.003744 -0.072794 0.117469 0.129122 -0.084495 -0.03225 0.169983 0.048515 -0.156108 -0.115103 0.122819 -0.073287 -0.004645 -0.14053 -0.014546 0.073257 -0.197504 0.009987 0.034358 0.078301 -0.007698 0.045133 -0.014087 -0.240045 0.046009 0.094314 -0.196752 -0.055011 0.297902 0.188898 -0.086036 -0.045763 -0.186415 -0.133141 -0.092314 -0.014961 -0.048396 0.242458 -0.079885 -0.006259 0.157872 -0.102333 0.047757 -0.05362 -0.011144 0.047243 -0.041123 -0.063828 0.107968 -0.019788 0.00223 -0.13664 0.027714 -0.113503 -0.119479 -0.083244 0.194514 0.125921 -0.025923 -0.087261
3 0.372549 0.330152 -0.20896 0.238999 -0.237098 0.075043 0.061754 0.209139 -0.08001 0.137097 0.070467 0.196215 0.333991 0.031176 -0.071702 -0.173597 0.027655 0.292733 -0.058713 0.288974 0.162099 0.077173 0.077393 0.32746 0.118979 0.059262 0.095021 -0.117682 -0.092933 -0.126135 0.225963 -0.208762 -0.059746 -0.234695 -0.015703 -0.180755 0.40404 -0.042466 0.373119 -0.150881 -0.462607 -0.085696 -0.252181 0.174768 -0.012952 0.138896 -0.325881 -0.028872 0.190805 0.023828 0.230021 0.059364 -0.211006 -0.096864 0.270849 0.294145 -0.040926 0.41937 -0.249975 0.06978 -0.28994 0.128442 0.088447 -0.141236 0.097201 -0.078707 -0.31424 -0.242869 -0.012804 0.223727 -0.038675 -0.271486 0.156668 -0.210455 0.188005 0.331203 -0.290183 -0.049238 -0.528117 0.348137 0.339529 0.161007 -0.010722 -0.411468 0.129357 0.160203 0.163696 -0.118158 0.080666 0.46497 -0.102678 -0.401775 0.29222 -0.116108 0.180706 -0.049575 0.562762 0.117337 0.195332 -0.438357
x 0.081247 -0.099928 -0.065827 0.079634 -0.109556 -0.061604 0.008121 -0.103573 -0.121334 0.05699 0.128058 0.092283 0.130369 0.045269 -0.103002 0.027532 -0.042458 -0.026617 -0.062998 -0.022504 0.197689 0.02127 0.142925 -0.065824 0.102127 -0.021119 -0.048661 -0.114316 0.03788 0.164585 0.073112 -0.207173 0.105181 -0.002192 -0.01319 0.070212 -0.045291 0.093334 0.039466 -0.121474 0.106611 -0.085926 0.029829 0.204976 -0.085336 0.02414 0.029643 -0.010089 -0.074905 -0.114105 -0.058009 -0.119493 -0.123215 0.082916 0.061508 0.173349 -0.127391 0.069604 0.035838 0.185359 0.000762 0.040842 0.019046 -0.24607 0.192358 -0.164411 -0.207602 -0.18299 0.299053 0.193761 -0.10184 0.035847 -0.047161 0.001417 0.108535 1e-06 -0.068041 0.104795 -0.112065 0.010541 0.09302 0.117827 0.011779 0.038459 0.013974 0.041392 0.029878 0.042731 0.078262 0.216906 -0.08308 -0.027996 0.099487 -0.163239 0.079656 -0.172481 0.145167 0.157771 -0.005055 -0.120978
4 0.328048 0.344667 -0.282605 0.235034 -0.212267 0.049607 0.130499 0.158469 -0.080778 0.120561 0.11309 0.145768 0.242612 0.00078 -0.038674 -0.303871 0.012937 0.253787 -0.003152 0.298465 0.148622 0.06819 0.086513 0.317808 0.0302 0.090412 0.133851 -0.132066 -0.129318 -0.163124 0.203332 -0.21064 -0.09071 -0.276314 0.001059 -0.22781 0.448587 -0.132902 0.420491 -0.181508 -0.50388 -0.082191 -0.336715 0.132407 -0.066492 0.187543 -0.334011 -0.011956 0.229407 0.014818 0.206324 -0.017562 -0.224662 -0.083544 0.23714 0.246419 -0.132644 0.469675 -0.23266 0.127514 -0.353529 0.047248 0.066051 -0.261762 0.028781 -0.006163 -0.377623 -0.21994 -0.084763 0.252314 -0.029516 -0.332373 0.140792 -0.252762 0.212664 0.287544 -0.217754 -0.028124 -0.514603 0.296275 0.305864 0.168823 -0.007554 -0.331773 0.117537 0.25084 0.18022 -0.120141 0.081671 0.384245 -0.118802 -0.449107 0.320834 -0.16697 0.174607 -0.067414 0.59607 0.067713 0.137409 -0.370289
0 0.469313 0.657172 -0.446844 0.293442 -0.376207 0.126971 0.247255 0.296846 -0.128427 0.349046 0.153969 0.475922 0.530011 0.228703 -0.161787 0.032557 -0.035689 0.371104 0.05829 0.456053 0.053382 0.074355 0.200142 0.063605 0.103362 0.136731 0.108272 -0.081272 -0.231704 -0.073224 0.377269 -0.395372 0.326476 -0.173291 -0.021872 -0.136659 0.494315 0.006932 0.357987 -0.163337 -0.368062 -0.121249 -0.431806 0.49663 -0.06686 0.277339 -0.507175 -0.12293 0.311053 0.177675 0.214077 0.153135 -0.285945 0.035249 0.403864 0.384483 0.328483 0.514873 -0.290353 0.075153 -0.130711 0.232807 0.046659 -0.112442 -0.031806 -0.218773 -0.451686 -0.48285 0.020334 0.179006 0.010946 -0.242002 0.392374 -0.258015 0.378267 0.4551 -0.181525 -0.078414 -0.600037 0.307953 0.608956 0.405134 0.028074 -0.652603 0.158617 0.115145 0.589315 -0.047661 0.065575 0.946034 -0.177212 -0.353708 0.115339 -0.062959 0.352192 -0.106062 0.667746 0.122861 0.244283 -0.856326
6 0.370639 0.334373 -0.203455 0.287268 -0.201191 -0.013858 0.151569 0.106843 -0.142785 0.136224 0.049825 0.179717 0.27319 0.054804 0.01441 -0.292593 0.04799 0.328555 -0.02672 0.362498 0.110668 0.075424 0.07553 0.36593 0.018128 0.107655 0.062266 -0.106391 -0.189758 -0.186087 0.18973 -0.240983 -0.050352 -0.278284 -0.011111 -0.261149 0.42274 -0.122114 0.528534 -0.23297 -0.51097 -0.073378 -0.257333 0.164102 -0.060248 0.188372 -0.305517 -0.004939 0.248406 0.029399 0.209341 0.034047 -0.225444 -0.137506 0.269788 0.211695 -0.110961 0.531085 -0.306315 0.070148 -0.415094 0.06597 0.181815 -0.264546 0.095145 0.007138 -0.392702 -0.197467 -0.058165 0.213292 -0.020201 -0.375326 0.164199 -0.174774 0.146077 0.361614 -0.315344 -0.001235 -0.511609 0.347539 0.358452 0.11073 0.127309 -0.496613 0.061901 0.198304 0.223004 -0.077445 0.073496 0.40369 -0.114639 -0.458623 0.319166 -0.201242 0.18669 0.006417 0.606713 0.066253 0.181977 -0.396815
7 0.358495 0.324105 -0.165682 0.269428 -0.162466 0.04258 0.233753 0.070299 -0.093381 0.148845 0.064035 0.226208 0.272669 0.028009 -0.079925 -0.203809 0.109973 0.306789 -0.03049 0.340565 0.058455 0.06967 0.145032 0.325149 -0.086634 0.061907 -0.000351 -0.119669 -0.184578 -0.225438 0.196088 -0.215938 -0.054579 -0.236593 0.070373 -0.283131 0.429134 -0.128516 0.598219 -0.180078 -0.513178 -0.115905 -0.275327 0.12408 -0.059382 0.243469 -0.444302 0.065546 0.133367 0.130916 0.232223 0.147652 -0.187915 -0.165567 0.288042 0.160834 -0.081737 0.487529 -0.380263 0.034498 -0.497194 -0.040441 0.161879 -0.258222 0.105814 0.034144 -0.422571 -0.13622 -0.043633 0.174683 0.002383 -0.291726 0.142864 -0.206811 0.203632 0.34712 -0.342685 -0.073257 -0.419162 0.230965 0.355374 0.132253 0.102604 -0.449034 0.094826 0.243014 0.183159 -0.084397 0.00588 0.440712 -0.149885 -0.509446 0.299135 -0.161483 0.194662 -0.004684 0.535874 0.074134 0.180586 -0.368697
8 0.26336 0.318604 -0.147927 0.293073 -0.148339 0.080952 0.206005 0.04017 -0.100737 0.131158 0.123163 0.215831 0.231477 -0.004141 -0.082964 -0.221602 0.000776 0.291432 -0.01891 0.385139 0.02332 0.022893 0.09157 0.315011 -0.046435 0.112834 -0.011498 -0.085846 -0.147827 -0.252793 0.146092 -0.275858 0.003518 -0.217613 0.04017 -0.282612 0.388631 -0.06821 0.542092 -0.278368 -0.517852 -0.084796 -0.221557 0.186425 -0.092081 0.226777 -0.378354 0.023923 0.162341 0.085013 0.195299 0.042242 -0.226069 -0.153457 0.181659 0.190687 -0.136288 0.481071 -0.326415 0.058468 -0.452978 -0.003766 0.168986 -0.37085 0.045983 0.065797 -0.438792 -0.178033 0.004804 0.202291 -0.021714 -0.304257 0.195789 -0.181213 0.142388 0.216711 -0.280941 -0.044098 -0.463113 0.281473 0.403103 0.141989 0.14744 -0.40932 0.039609 0.297112 0.193111 0.02956 0.046363 0.435448 -0.178788 -0.470028 0.274747 -0.051988 0.152856 -0.052793 0.571665 0.138879 0.162551 -0.369283
z 0.060763 -0.052205 -0.030069 0.062936 -0.01141 -0.078638 0.012668 -0.119481 -0.020986 -0.013622 0.090571 0.11904 0.035628 0.04839 0.015114 0.072571 -0.098045 -0.090161 -0.069573 -0.018407 0.162155 0.067368 0.069531 -0.083055 0.04166 -0.064114 -0.012821 -0.111258 0.09515 0.128484 0.05442 -0.100376 0.104959 0.07141 0.036668 -0.008999 -0.095113 0.182782 0.047906 -0.215901 0.037701 -0.107296 0.086372 0.297316 -0.132682 -0.113584 -0.003715 0.036223 -0.088606 -0.121607 0.01806 -0.153635 -0.027762 -0.087215 0.006823 0.078057 -0.175112 0.07003 0.055347 0.089391 -0.006455 0.023547 0.109759 -0.291289 0.091052 -0.089499 -0.16417 0.031905 0.162557 0.177988 0.012683 0.037374 -0.124165 0.035809 0.114745 -0.0843 -0.047588 0.1483 -0.055016 -0.068154 0.086868 0.051404 0.056824 0.004461 0.079079 0.014113 -0.020317 -0.054667 0.056727 0.183145 0.023595 -0.083354 -0.021853 -0.200549 0.031619 -0.150738 0.211184 0.061603 -0.100835 -0.069892
q 0.063217 0.0438 -0.002795 -0.062166 -0.032987 -0.024253 0.13737 -0.143834 -0.107 -0.014445 0.04114 0.226409 0.000789 0.071803 -0.025099 0.041308 -0.042018 0.026244 -0.034367 -0.004498 0.114433 0.047823 0.172233 -0.151349 -0.016524 0.001827 0.010954 -0.106465 0.052284 0.109584 -0.09304 -0.257319 0.147316 -0.080598 -0.044118 0.049635 -0.104202 0.073307 0.101313 -0.04531 0.141855 -0.053629 0.060948 0.129015 -0.071869 0.127725 0.077525 0.043643 -0.138755 -0.090325 0.055659 -0.093339 -0.147598 -0.062431 0.025581 0.092806 -0.181252 0.057597 0.137103 0.249242 0.132412 0.089074 0.120969 -0.292472 0.08012 -0.05815 -0.164177 -0.110529 0.330324 0.230977 0.005709 -0.077098 -0.051162 -0.068156 0.06374 -0.003304 -0.058588 0.067629 0.010031 -0.034143 0.236622 0.08312 0.07153 0.055131 -0.060288 0.006577 -0.125176 -0.01311 0.041475 0.167432 0.061826 -0.072873 0.026638 -0.054487 0.04826 -0.14059 0.015343 0.058938 -0.019472 -0.085819
9 0.186455 0.280016 -0.263143 0.276432 -0.129531 0.046336 0.241161 0.051411 0.094234 -0.031533 -0.048896 0.212883 0.502438 -0.092285 -0.191106 -0.036723 -0.089874 0.336866 -0.014245 0.214707 0.095923 0.052914 0.039685 0.333376 -0.00241 0.15486 -0.082508 -0.050756 -0.240267 -0.234467 0.119731 -0.225626 0.05963 -0.218546 0.213227 -0.494951 0.5953 -0.112149 0.572414 -0.404113 -0.635179 -0.061267 -0.171276 0.292022 -0.041697 0.251761 -0.397799 -0.231602 -0.108869 0.108229 0.120801 -0.039346 -0.197905 -0.103177 -0.026238 0.228595 -0.278661 0.600268 -0.487477 -0.065206 -0.350416 0.005157 0.356694 -0.329314 0.033457 0.035867 -0.553124 -0.253487 -0.08792 0.25647 -0.09146 -0.266449 0.043126 -0.107742 0.137456 0.223571 -0.338344 0.29651 -0.569109 0.344653 0.294031 0.110673 0.361475 -0.394252 -0.058003 0.289558 0.327027 0.17415 -0.060176 0.308813 -0.312201 -0.307145 0.22893 -0.1195 0.152264 -0.072996 0.571456 0.241977 0.300805 -0.429747
â 0.046955 0.004111 -0.43356 0.146931 0.20781 0.25674 0.057042 -0.072838 -0.476101 -0.07613 -0.070827 -0.057706 0.10296 0.072835 -0.263452 -0.188289 0.293095 0.280181 0.21352 -0.330513 0.175273 -0.015433 0.061405 0.316933 -0.18896 0.101988 0.220323 -0.017129 -0.384922 0.217932 0.12055 0.187543 0.051379 0.032608 0.043414 0.056916 0.011106 0.0846 0.102762 -0.445585 -0.008187 0.153255 0.006854 -0.064374 -0.466563 -0.093838 -0.276193 0.079322 0.169093 -0.153594 -0.15514 -0.458063 0.418795 -0.044943 0.065608 0.410786 -0.20967 0.115364 0.185129 0.358837 -0.28175 0.261275 0.131267 -0.043834 0.380859 -0.610258 -0.169215 0.381278 0.255431 -0.568304 -0.097811 -0.063567 -0.652246 -0.366311 0.365692 -0.198105 0.328367 -0.020573 -0.09789 0.129222 0.119946 -0.190376 -0.288844 -0.107631 -0.566641 0.015526 -0.110325 -0.118043 -0.049459 -0.235884 0.344622 0.055156 -0.226681 0.013901 0.077615 0.237964 0.216179 -0.008498 0.095064 0.185914
ã -0.1581 -0.155547 -0.149494 -0.064237 -0.041095 0.061837 -0.121133 -0.011585 0.09759 -0.048652 0.004408 0.21817 -0.001632 0.080491 -0.244353 0.283483 -0.056553 -0.137245 -0.109143 -3e-05 -0.493746 0.323991 0.133568 0.303692 -0.202018 -0.127247 -0.247645 -0.043702 0.160031 0.362649 -0.20672 -0.201529 -0.25348 -0.300382 -0.171987 -0.021233 -0.027793 -0.04831 0.201407 -0.512858 -0.024289 -0.097613 0.162056 -0.092719 -0.139286 0.017039 -0.040359 -0.31268 -0.076339 0.004318 0.201656 -0.115401 -0.23773 -0.006417 0.155223 -0.112312 -0.263656 0.334179 0.27913 0.391132 0.005993 0.1841 -0.004821 -0.210515 0.088106 0.093404 -0.029354 0.072195 0.162345 0.251603 -0.02905 -0.077863 -0.062 0.173646 0.037149 0.035037 -0.427359 0.253985 -0.19899 -0.026999 0.10216 -0.30991 0.058489 0.077576 -0.281923 0.081091 0.146932 -0.144819 0.168863 -0.150137 -0.050039 -0.326939 0.022354 -0.464341 0.087316 -0.061188 0.031488 -0.118673 -0.016827 -0.391778
½ 0.192685 -0.167224 -0.150541 0.045707 -0.03272 0.025459 -0.051759 -0.337033 -0.095545 -0.184066 0.016882 0.138312 -0.025873 0.07907 -0.139557 0.097729 -0.057913 0.051195 -0.145289 0.266466 -0.039531 0.089078 -0.014052 0.118306 0.05108 0.174698 0.135314 -0.16507 -0.006536 -0.103071 -0.094975 -0.107622 -0.27888 -0.298154 -0.137381 -0.053243 0.169472 0.045833 -0.148354 0.013278 0.007084 -0.1348 0.01112 0.235995 -0.044252 0.034204 0.002585 -0.116042 -0.116276 -0.110676 0.171732 0.007745 0.113987 -0.125537 -0.083866 -0.052192 0.139483 0.154004 -0.068207 -0.088795 -0.123178 0.199353 0.144715 -0.446805 -0.066691 -0.18725 -0.155671 0.014265 0.259234 0.041786 0.113094 -0.039571 0.116944 -0.057901 -0.168428 -0.019909 -0.119699 -0.153711 -0.130446 0.150382 0.291828 0.015642 -0.168413 -0.046519 0.019724 0.051564 -0.09036 0.108592 0.232086 -0.171369 0.047123 -0.234725 -0.027367 0.10121 -0.027959 -0.071791 0.079499 0.094271 -0.035199 -0.116692
